Language model created by QuickLM on Sat Dec 21 07:55:57 EST 2019
Copyright (c) 1996-2010 Carnegie Mellon University and Alexander I. Rudnicky

The model is in standard ARPA format, designed by Doug Paul while he was at MITRE.

The code that was used to produce this language model is available in Open Source.
Please visit http://www.speech.cs.cmu.edu/tools/ for more information

The (fixed) discount mass is 0.5. The backoffs are computed using the ratio method.
This model based on a corpus of 10 sentences and 12 words

\data\
ngram 1=12
ngram 2=20
ngram 3=10

\1-grams:
-0.7782 </s> -0.3010
-0.7782 <s> -0.2218
-1.7782 BACKWARD -0.2218
-1.7782 FORWARD -0.2218
-1.7782 GO -0.2218
-1.7782 HAULT -0.2218
-1.7782 LEFT -0.2218
-1.7782 RIGHT -0.2218
-1.7782 START -0.2218
-1.7782 STOP -0.2218
-1.7782 VIDEO -0.2218
-1.7782 ZERO -0.2218

\2-grams:
-1.3010 <s> BACKWARD 0.0000
-1.3010 <s> FORWARD 0.0000
-1.3010 <s> GO 0.0000
-1.3010 <s> HAULT 0.0000
-1.3010 <s> LEFT 0.0000
-1.3010 <s> RIGHT 0.0000
-1.3010 <s> START 0.0000
-1.3010 <s> STOP 0.0000
-1.3010 <s> VIDEO 0.0000
-1.3010 <s> ZERO 0.0000
-0.3010 BACKWARD </s> -0.3010
-0.3010 FORWARD </s> -0.3010
-0.3010 GO </s> -0.3010
-0.3010 HAULT </s> -0.3010
-0.3010 LEFT </s> -0.3010
-0.3010 RIGHT </s> -0.3010
-0.3010 START </s> -0.3010
-0.3010 STOP </s> -0.3010
-0.3010 VIDEO </s> -0.3010
-0.3010 ZERO </s> -0.3010

\3-grams:
-0.3010 <s> BACKWARD </s>
-0.3010 <s> FORWARD </s>
-0.3010 <s> GO </s>
-0.3010 <s> HAULT </s>
-0.3010 <s> LEFT </s>
-0.3010 <s> RIGHT </s>
-0.3010 <s> START </s>
-0.3010 <s> STOP </s>
-0.3010 <s> VIDEO </s>
-0.3010 <s> ZERO </s>

\end\
