Language model created by QuickLM on Sat Oct 19 06:54:47 EDT 2019
Copyright (c) 1996-2010 Carnegie Mellon University and Alexander I. Rudnicky

The model is in standard ARPA format, designed by Doug Paul while he was at MITRE.

The code that was used to produce this language model is available in Open Source.
Please visit http://www.speech.cs.cmu.edu/tools/ for more information

The (fixed) discount mass is 0.5. The backoffs are computed using the ratio method.
This model based on a corpus of 77 sentences and 81 words

\data\
ngram 1=81
ngram 2=156
ngram 3=81

\1-grams:
-0.7856 </s> -0.3010
-0.7856 <s> -0.2233
-2.6721 APRIL -0.2233
-2.6721 AUGUST -0.2233
-2.6721 BACKWARD -0.2233
-2.6721 BLUE -0.2233
-2.6721 COLOR -0.2233
-2.6721 DATE -0.2233
-2.6721 DAY -0.2233
-2.6721 DECEMBER -0.2233
-2.6721 DEGREE -0.2233
-2.6721 EIGHT -0.2233
-2.6721 EIGHTEEN -0.2233
-2.6721 EIGHTY -0.2233
-2.6721 ELEVEN -0.2233
-2.6721 FEBRUARY -0.2233
-2.6721 FIFTEEN -0.2233
-2.6721 FIFTY -0.2233
-2.6721 FIVE -0.2233
-2.6721 FORTY -0.2233
-2.6721 FORWARD -0.2233
-2.6721 FOUR -0.2233
-2.6721 FOURTEEN -0.2233
-2.6721 FRIDAY -0.2233
-2.6721 GO -0.2233
-2.6721 GREEN -0.2233
-2.6721 HOUR -0.2233
-2.6721 HUNDRED -0.2233
-2.6721 IS -0.2233
-2.6721 IT -0.2233
-2.6721 JANUARY -0.2233
-2.6721 JULY -0.2233
-2.6721 JUNE -0.2233
-2.6721 LEFT -0.2233
-2.6721 LIVE -0.3001
-2.6721 MARCH -0.2233
-2.6721 MAY -0.2233
-2.6721 MINUTE -0.2233
-2.6721 MONDAY -0.2233
-2.6721 MONTH -0.2233
-2.6721 NAME -0.2233
-2.6721 NINE -0.2233
-2.6721 NINETEEN -0.2233
-2.6721 NINETY -0.2233
-2.6721 NOVEMBER -0.2233
-2.6721 NUMBER -0.2233
-2.6721 OCTOBER -0.2233
-2.6721 ONE -0.2233
-2.6721 RAJU -0.2233
-2.6721 RED -0.2233
-2.6721 RIGHT -0.2233
-2.6721 SATURDAY -0.2233
-2.6721 SECOND -0.2233
-2.6721 SEPTEMBER -0.2233
-2.6721 SEVEN -0.2233
-2.6721 SEVENTEEN -0.2233
-2.6721 SEVENTY -0.2233
-2.6721 SIX -0.2233
-2.6721 SIXTEEN -0.2233
-2.6721 SIXTY -0.2233
-2.6721 START -0.3001
-2.6721 SUNDAY -0.2233
-2.6721 TEN -0.2233
-2.6721 THE -0.2233
-2.6721 THIRTEEN -0.2233
-2.6721 THIRTY -0.2233
-2.6721 THOUSAND -0.2233
-2.6721 THREE -0.2233
-2.6721 THURSDAY -0.2233
-2.6721 TIME -0.2233
-2.6721 TUESDAY -0.2233
-2.6721 TURN -0.2233
-2.6721 TWELVE -0.2233
-2.6721 TWENTY -0.2233
-2.6721 TWO -0.2233
-2.6721 VIDEO -0.2233
-2.6721 WEDNESDAY -0.2233
-2.1950 WHAT -0.2211
-2.6721 YEAR -0.2233
-2.6721 YELLOW -0.2233
-2.6721 ZERO -0.2233

\2-grams:
-2.1875 <s> APRIL 0.0000
-2.1875 <s> AUGUST 0.0000
-2.1875 <s> BACKWARD 0.0000
-2.1875 <s> BLUE 0.0000
-2.1875 <s> DATE 0.0000
-2.1875 <s> DAY 0.0000
-2.1875 <s> DECEMBER 0.0000
-2.1875 <s> DEGREE 0.0000
-2.1875 <s> EIGHT 0.0000
-2.1875 <s> EIGHTEEN 0.0000
-2.1875 <s> EIGHTY 0.0000
-2.1875 <s> ELEVEN 0.0000
-2.1875 <s> FEBRUARY 0.0000
-2.1875 <s> FIFTEEN 0.0000
-2.1875 <s> FIFTY 0.0000
-2.1875 <s> FIVE 0.0000
-2.1875 <s> FORTY 0.0000
-2.1875 <s> FORWARD 0.0000
-2.1875 <s> FOUR 0.0000
-2.1875 <s> FOURTEEN 0.0000
-2.1875 <s> FRIDAY 0.0000
-2.1875 <s> GO 0.0000
-2.1875 <s> GREEN 0.0000
-2.1875 <s> HOUR 0.0000
-2.1875 <s> HUNDRED 0.0000
-2.1875 <s> IS 0.0000
-2.1875 <s> IT 0.0000
-2.1875 <s> JANUARY 0.0000
-2.1875 <s> JULY 0.0000
-2.1875 <s> JUNE 0.0000
-2.1875 <s> LEFT 0.0000
-2.1875 <s> MARCH 0.0000
-2.1875 <s> MAY 0.0000
-2.1875 <s> MINUTE 0.0000
-2.1875 <s> MONDAY 0.0000
-2.1875 <s> MONTH 0.0000
-2.1875 <s> NAME 0.0000
-2.1875 <s> NINE 0.0000
-2.1875 <s> NINETEEN 0.0000
-2.1875 <s> NINETY 0.0000
-2.1875 <s> NOVEMBER 0.0000
-2.1875 <s> OCTOBER 0.0000
-2.1875 <s> ONE 0.0000
-2.1875 <s> RAJU 0.0000
-2.1875 <s> RED 0.0000
-2.1875 <s> RIGHT 0.0000
-2.1875 <s> SATURDAY 0.0000
-2.1875 <s> SECOND 0.0000
-2.1875 <s> SEPTEMBER 0.0000
-2.1875 <s> SEVEN 0.0000
-2.1875 <s> SEVENTEEN 0.0000
-2.1875 <s> SEVENTY 0.0000
-2.1875 <s> SIX 0.0000
-2.1875 <s> SIXTEEN 0.0000
-2.1875 <s> SIXTY 0.0000
-2.1875 <s> START 0.0000
-2.1875 <s> SUNDAY 0.0000
-2.1875 <s> TEN 0.0000
-2.1875 <s> THE 0.0000
-2.1875 <s> THIRTEEN 0.0000
-2.1875 <s> THIRTY 0.0000
-2.1875 <s> THOUSAND 0.0000
-2.1875 <s> THREE 0.0000
-2.1875 <s> THURSDAY 0.0000
-2.1875 <s> TIME 0.0000
-2.1875 <s> TUESDAY 0.0000
-2.1875 <s> TURN 0.0000
-2.1875 <s> TWELVE 0.0000
-2.1875 <s> TWENTY 0.0000
-2.1875 <s> TWO 0.0000
-2.1875 <s> WEDNESDAY 0.0000
-1.7104 <s> WHAT 0.0000
-2.1875 <s> YEAR 0.0000
-2.1875 <s> YELLOW 0.0000
-2.1875 <s> ZERO 0.0000
-0.3010 APRIL </s> -0.3010
-0.3010 AUGUST </s> -0.3010
-0.3010 BACKWARD </s> -0.3010
-0.3010 BLUE </s> -0.3010
-0.3010 COLOR </s> -0.3010
-0.3010 DATE </s> -0.3010
-0.3010 DAY </s> -0.3010
-0.3010 DECEMBER </s> -0.3010
-0.3010 DEGREE </s> -0.3010
-0.3010 EIGHT </s> -0.3010
-0.3010 EIGHTEEN </s> -0.3010
-0.3010 EIGHTY </s> -0.3010
-0.3010 ELEVEN </s> -0.3010
-0.3010 FEBRUARY </s> -0.3010
-0.3010 FIFTEEN </s> -0.3010
-0.3010 FIFTY </s> -0.3010
-0.3010 FIVE </s> -0.3010
-0.3010 FORTY </s> -0.3010
-0.3010 FORWARD </s> -0.3010
-0.3010 FOUR </s> -0.3010
-0.3010 FOURTEEN </s> -0.3010
-0.3010 FRIDAY </s> -0.3010
-0.3010 GO </s> -0.3010
-0.3010 GREEN </s> -0.3010
-0.3010 HOUR </s> -0.3010
-0.3010 HUNDRED </s> -0.3010
-0.3010 IS </s> -0.3010
-0.3010 IT </s> -0.3010
-0.3010 JANUARY </s> -0.3010
-0.3010 JULY </s> -0.3010
-0.3010 JUNE </s> -0.3010
-0.3010 LEFT </s> -0.3010
-0.3010 LIVE VIDEO 0.0000
-0.3010 MARCH </s> -0.3010
-0.3010 MAY </s> -0.3010
-0.3010 MINUTE </s> -0.3010
-0.3010 MONDAY </s> -0.3010
-0.3010 MONTH </s> -0.3010
-0.3010 NAME </s> -0.3010
-0.3010 NINE </s> -0.3010
-0.3010 NINETEEN </s> -0.3010
-0.3010 NINETY </s> -0.3010
-0.3010 NOVEMBER </s> -0.3010
-0.3010 NUMBER </s> -0.3010
-0.3010 OCTOBER </s> -0.3010
-0.3010 ONE </s> -0.3010
-0.3010 RAJU </s> -0.3010
-0.3010 RED </s> -0.3010
-0.3010 RIGHT </s> -0.3010
-0.3010 SATURDAY </s> -0.3010
-0.3010 SECOND </s> -0.3010
-0.3010 SEPTEMBER </s> -0.3010
-0.3010 SEVEN </s> -0.3010
-0.3010 SEVENTEEN </s> -0.3010
-0.3010 SEVENTY </s> -0.3010
-0.3010 SIX </s> -0.3010
-0.3010 SIXTEEN </s> -0.3010
-0.3010 SIXTY </s> -0.3010
-0.3010 START LIVE 0.0000
-0.3010 SUNDAY </s> -0.3010
-0.3010 TEN </s> -0.3010
-0.3010 THE </s> -0.3010
-0.3010 THIRTEEN </s> -0.3010
-0.3010 THIRTY </s> -0.3010
-0.3010 THOUSAND </s> -0.3010
-0.3010 THREE </s> -0.3010
-0.3010 THURSDAY </s> -0.3010
-0.3010 TIME </s> -0.3010
-0.3010 TUESDAY </s> -0.3010
-0.3010 TURN </s> -0.3010
-0.3010 TWELVE </s> -0.3010
-0.3010 TWENTY </s> -0.3010
-0.3010 TWO </s> -0.3010
-0.3010 VIDEO </s> -0.3010
-0.3010 WEDNESDAY </s> -0.3010
-0.7782 WHAT </s> -0.3010
-0.7782 WHAT COLOR 0.0000
-0.7782 WHAT NUMBER 0.0000
-0.3010 YEAR </s> -0.3010
-0.3010 YELLOW </s> -0.3010
-0.3010 ZERO </s> -0.3010

\3-grams:
-0.3010 <s> APRIL </s>
-0.3010 <s> AUGUST </s>
-0.3010 <s> BACKWARD </s>
-0.3010 <s> BLUE </s>
-0.3010 <s> DATE </s>
-0.3010 <s> DAY </s>
-0.3010 <s> DECEMBER </s>
-0.3010 <s> DEGREE </s>
-0.3010 <s> EIGHT </s>
-0.3010 <s> EIGHTEEN </s>
-0.3010 <s> EIGHTY </s>
-0.3010 <s> ELEVEN </s>
-0.3010 <s> FEBRUARY </s>
-0.3010 <s> FIFTEEN </s>
-0.3010 <s> FIFTY </s>
-0.3010 <s> FIVE </s>
-0.3010 <s> FORTY </s>
-0.3010 <s> FORWARD </s>
-0.3010 <s> FOUR </s>
-0.3010 <s> FOURTEEN </s>
-0.3010 <s> FRIDAY </s>
-0.3010 <s> GO </s>
-0.3010 <s> GREEN </s>
-0.3010 <s> HOUR </s>
-0.3010 <s> HUNDRED </s>
-0.3010 <s> IS </s>
-0.3010 <s> IT </s>
-0.3010 <s> JANUARY </s>
-0.3010 <s> JULY </s>
-0.3010 <s> JUNE </s>
-0.3010 <s> LEFT </s>
-0.3010 <s> MARCH </s>
-0.3010 <s> MAY </s>
-0.3010 <s> MINUTE </s>
-0.3010 <s> MONDAY </s>
-0.3010 <s> MONTH </s>
-0.3010 <s> NAME </s>
-0.3010 <s> NINE </s>
-0.3010 <s> NINETEEN </s>
-0.3010 <s> NINETY </s>
-0.3010 <s> NOVEMBER </s>
-0.3010 <s> OCTOBER </s>
-0.3010 <s> ONE </s>
-0.3010 <s> RAJU </s>
-0.3010 <s> RED </s>
-0.3010 <s> RIGHT </s>
-0.3010 <s> SATURDAY </s>
-0.3010 <s> SECOND </s>
-0.3010 <s> SEPTEMBER </s>
-0.3010 <s> SEVEN </s>
-0.3010 <s> SEVENTEEN </s>
-0.3010 <s> SEVENTY </s>
-0.3010 <s> SIX </s>
-0.3010 <s> SIXTEEN </s>
-0.3010 <s> SIXTY </s>
-0.3010 <s> START LIVE
-0.3010 <s> SUNDAY </s>
-0.3010 <s> TEN </s>
-0.3010 <s> THE </s>
-0.3010 <s> THIRTEEN </s>
-0.3010 <s> THIRTY </s>
-0.3010 <s> THOUSAND </s>
-0.3010 <s> THREE </s>
-0.3010 <s> THURSDAY </s>
-0.3010 <s> TIME </s>
-0.3010 <s> TUESDAY </s>
-0.3010 <s> TURN </s>
-0.3010 <s> TWELVE </s>
-0.3010 <s> TWENTY </s>
-0.3010 <s> TWO </s>
-0.3010 <s> WEDNESDAY </s>
-0.7782 <s> WHAT </s>
-0.7782 <s> WHAT COLOR
-0.7782 <s> WHAT NUMBER
-0.3010 <s> YEAR </s>
-0.3010 <s> YELLOW </s>
-0.3010 <s> ZERO </s>
-0.3010 LIVE VIDEO </s>
-0.3010 START LIVE VIDEO
-0.3010 WHAT COLOR </s>
-0.3010 WHAT NUMBER </s>

\end\
